{
    "classes": [
        "politics", 
        "business", 
        "entertainment"
    ], 
    "datetime": "2018-06-02 18:58", 
    "hidden_output_weight": [
        [
            -2.2227679977219776, 
            1.102693437644331, 
            0.18971743803644164
        ], 
        [
            4.007756946255863, 
            -1.8885847905823934, 
            -3.7374482268159888
        ], 
        [
            0.031432153715005316, 
            0.4688816157911172, 
            -2.107646676618144
        ], 
        [
            2.798127343790121, 
            1.1336235558514627, 
            -4.653313086271055
        ], 
        [
            -1.2042845001739018, 
            -1.9908264066681398, 
            2.478473202989124
        ], 
        [
            -1.205041943736106, 
            1.5630140914622075, 
            -1.0833870846716787
        ], 
        [
            1.3412419153215864, 
            -0.8708367913315928, 
            -1.0072658583482594
        ], 
        [
            2.519505029233989, 
            -2.2176276782546265, 
            -1.237098546627809
        ], 
        [
            1.2707675368908802, 
            -1.9930487227972324, 
            -0.3156805710787416
        ], 
        [
            -2.329837404381084, 
            0.44156501847823926, 
            1.5372806524493554
        ], 
        [
            -4.18995415541843, 
            5.827515041332136, 
            -2.699561321733752
        ], 
        [
            -1.8412078592186956, 
            -2.419708374883079, 
            3.175087186240236
        ], 
        [
            -0.6032989904251569, 
            -0.008170583922138121, 
            -0.7192473534291269
        ], 
        [
            1.2836797400058706, 
            -2.579176479753201, 
            0.4331712948363802
        ], 
        [
            -3.6887416967399367, 
            3.579595726596451, 
            -1.1984511451131652
        ], 
        [
            -1.2516240446858447, 
            -0.2193421742767334, 
            0.9460757154140903
        ], 
        [
            0.031618020274266564, 
            -3.2964641100575207, 
            2.135833083050497
        ], 
        [
            -0.1500095720284756, 
            -0.06374638303959251, 
            -0.2831803140057722
        ], 
        [
            -1.11409546838913, 
            2.138310541862527, 
            -1.1171242133159127
        ], 
        [
            -3.593511329517752, 
            0.280361217644333, 
            2.956009474102433
        ]
    ], 
    "input_hidden_weight": [
        [
            -0.15109090184047283, 
            0.43843548573475527, 
            -1.000792667485256, 
            -0.4214191678308005, 
            -0.7070465558498656, 
            -0.8075585377539115, 
            -0.6437366159335612, 
            -0.37126981193305303, 
            -0.22481704334977443, 
            0.09935497169651705, 
            -0.06785011171482921, 
            0.3704099654211475, 
            -0.5901379988512213, 
            0.7066534583703544, 
            -0.9163360653157723, 
            0.34126519027876523, 
            -0.16539271503996264, 
            0.11068706921103609, 
            -0.7156337576187565, 
            -0.5762269314052746
        ], 
        [
            0.6316723319514678, 
            0.9640494026845642, 
            -0.41443330784498905, 
            0.4115863949034349, 
            0.7291035223313197, 
            0.7569736795149846, 
            -0.8110386784381068, 
            -0.9334280641420718, 
            -0.6556030471766431, 
            0.8358475854404478, 
            -0.77209256717296, 
            -0.22830021729805816, 
            0.880229165800558, 
            0.14972989987887386, 
            0.37355613787193764, 
            -0.333502228028416, 
            0.4664511275281423, 
            0.6588468708016869, 
            -0.9810495158046847, 
            0.5514157832899023
        ], 
        [
            1.0054627913666536, 
            0.47359056604973926, 
            -0.4710066752735161, 
            0.5185749090258456, 
            -0.7817391491244617, 
            -0.10496894123215343, 
            0.7974248830945443, 
            -0.4195018505165095, 
            -0.4285792075842779, 
            -0.7105213299994669, 
            -0.9613352034202259, 
            0.3677890515499894, 
            -0.5843254522513259, 
            -0.469757709390519, 
            -0.012757566700100456, 
            -0.8976348664537801, 
            0.17047044247469195, 
            -0.7264329888573657, 
            0.16625995347346884, 
            0.4160345735169666
        ], 
        [
            -0.9512446482819213, 
            0.10808383520977057, 
            0.39031506024416457, 
            -0.005826839426938648, 
            -0.9098193706328636, 
            0.029509154778944422, 
            0.3175800861939397, 
            0.06777228310664736, 
            0.9100994202231902, 
            -0.028640428052547632, 
            0.5843317328446451, 
            -0.8286004386223668, 
            -0.7306548529007714, 
            0.558486457253281, 
            -0.27218560455546004, 
            -0.7595883425625458, 
            0.8790407928570694, 
            -0.2895758234507234, 
            0.4402781542447054, 
            0.1797701985534839
        ], 
        [
            0.7603919500357357, 
            0.31541105023896704, 
            0.5018863921504604, 
            -0.3021760392641832, 
            -0.46356582651140554, 
            0.7916105727578326, 
            -0.14310613476287917, 
            0.9714354077747989, 
            0.3292830952000067, 
            0.24337742979073243, 
            -0.7716732557122344, 
            0.8807318288864737, 
            -0.10017797991351474, 
            0.1763156170739247, 
            -0.24338042300970897, 
            -0.5362049304046538, 
            0.8080096591677921, 
            0.15123474700624903, 
            -0.9946812988786171, 
            0.23371325543244562
        ], 
        [
            -0.34247602823164014, 
            0.050275509228795805, 
            0.7718780693727731, 
            -0.2854608239954796, 
            0.8347553553335235, 
            0.24672033551103623, 
            -0.9683608396919079, 
            0.8580089543282992, 
            0.38154849262861923, 
            1.0114721953494887, 
            -0.6645656139074525, 
            -0.7191372976198523, 
            0.8571986754533242, 
            0.40716142662401555, 
            -0.8761080001069322, 
            0.5204092680144699, 
            0.5443822631958084, 
            0.8435345790161943, 
            0.4105804234979466, 
            -0.7514276798566304
        ], 
        [
            -0.9631368359257081, 
            -0.8130861543470946, 
            -0.9340421714286472, 
            -0.4033555087311621, 
            0.6680397978718875, 
            0.05244381096801253, 
            0.09681573678021446, 
            0.6625613406041786, 
            -0.6726528353003193, 
            -0.41162060407697015, 
            0.06228702235200009, 
            0.8950972645918333, 
            0.08556982267229796, 
            -0.8502680249848139, 
            0.526068050290484, 
            -0.5863737667180206, 
            0.6484945606177228, 
            -0.25104123651573695, 
            0.7215384746012866, 
            0.47357656009240157
        ], 
        [
            0.09913486680151501, 
            -0.7027042958412626, 
            -0.8798531118636109, 
            -0.7566161006957101, 
            -0.9092234580140074, 
            -0.799405128741365, 
            -0.5454097623281509, 
            0.4318213653412445, 
            0.1385911479779149, 
            -0.9970078084037687, 
            -0.8577893477091021, 
            0.9345512474086007, 
            0.13620284082583245, 
            -0.5755278326761352, 
            -0.5284626863498785, 
            0.4800964676810397, 
            -0.6091469237165738, 
            0.1726123842208061, 
            0.9348009693435514, 
            0.6831324761490504
        ], 
        [
            -0.60641124457921, 
            0.14417713274605073, 
            0.24195054418366227, 
            0.6984558300943929, 
            -0.6869103456398399, 
            -0.9710739455200472, 
            -0.853320153116278, 
            0.08244711520289859, 
            0.30076741152094033, 
            0.008371961995678686, 
            -0.5255460487515656, 
            0.9630102714660733, 
            0.15504291734559292, 
            -0.21956463056256037, 
            0.08240469402244646, 
            0.4505895646333295, 
            0.3645970070576236, 
            -0.46361771259874446, 
            -0.8754811892079879, 
            -0.3671974884756169
        ], 
        [
            0.2598210859333334, 
            -0.5847602410865953, 
            0.4896431245925857, 
            -0.8615123567285319, 
            -0.4796127057013353, 
            0.6108930616529198, 
            -0.6131316602740965, 
            0.2634871908713418, 
            0.041685343394729624, 
            0.8496158624469359, 
            -0.4728638589194268, 
            -0.870685232751276, 
            0.4702154706065149, 
            0.5417058769036338, 
            0.8166458550573706, 
            0.8595469822758708, 
            -0.9721112079199583, 
            -0.549082961370204, 
            0.23369436130967822, 
            0.8979899705069958
        ], 
        [
            0.7867476768122759, 
            0.34922458224633673, 
            0.8528026364466397, 
            0.31436477850415806, 
            -0.016087441546589115, 
            -0.19035497965539988, 
            0.2930517693588854, 
            0.3340542821070022, 
            0.9933486152791247, 
            0.6500795029426463, 
            -0.7657504865878533, 
            0.9730779623803312, 
            -0.6646328130289755, 
            -0.6171488147069104, 
            -0.9906869510878411, 
            -0.06119071749384839, 
            -0.9146906082235482, 
            0.9363911415186039, 
            0.5306076656180054, 
            -1.1640035915332207
        ], 
        [
            -0.5829747907236954, 
            -0.34889260750866796, 
            -0.7351216695893863, 
            0.6231981476369993, 
            -0.36109711821300067, 
            0.8837081093164934, 
            0.14978577767763138, 
            0.7518470349289202, 
            0.679052206705534, 
            0.856012856023316, 
            0.0736753570899082, 
            0.09041769109238691, 
            0.5935055584188649, 
            -0.54468789692709, 
            0.09141367640705733, 
            0.20547430521262264, 
            -1.106869742246539, 
            0.18015978839827493, 
            -0.026835341998055998, 
            0.653538171522571
        ], 
        [
            -0.24527702012161276, 
            0.7366359124948099, 
            0.1474152359719423, 
            -0.8146290426682589, 
            0.5408000767729446, 
            0.2592422126597694, 
            -0.9279518680507073, 
            -0.1634744885987405, 
            0.3033103697616894, 
            0.8853538690569518, 
            -0.956777755171622, 
            0.9274233003924058, 
            -0.24550913302257704, 
            0.9081782161491466, 
            0.3266370979417695, 
            0.6464868272388867, 
            0.15239184824624985, 
            0.26171504754672914, 
            -0.3853172781559114, 
            0.26172764963286316
        ], 
        [
            0.46599525529238073, 
            0.7701343401704983, 
            0.5102177340816311, 
            0.40689549766045285, 
            0.7544737749599085, 
            -0.3685303359753773, 
            0.3521131753407211, 
            -0.09755826302576304, 
            -0.2342180592207811, 
            -0.17840853188631087, 
            -0.23848656564991694, 
            -0.3673578668048841, 
            0.24540948662061102, 
            -0.09746969006493403, 
            0.9417333992492345, 
            0.34598714713425016, 
            -0.5841302907851084, 
            -0.1370894917322098, 
            -0.3138982529986745, 
            0.5665812314949518
        ], 
        [
            0.8008849578970116, 
            0.8045288368269993, 
            0.3071019445151384, 
            -0.5673971720472406, 
            -0.49708673806655174, 
            0.6919111073256601, 
            0.05147152324598034, 
            0.5584915704827585, 
            0.17011790120232748, 
            0.5041708577525175, 
            0.033927402221471614, 
            0.5681088795465128, 
            0.1534528337366286, 
            -0.05562739898323569, 
            -0.2797489276617997, 
            -0.8769224499086197, 
            -0.23677818381962082, 
            -0.8516277580705923, 
            0.9644846448447748, 
            -0.5642273781850726
        ], 
        [
            0.5888371552626618, 
            0.7584651613789111, 
            0.3946529746633772, 
            0.17149115968071607, 
            -0.6774285487492839, 
            -0.08213969339480637, 
            -0.2777199331580128, 
            -0.49930616547309414, 
            0.19690937794344746, 
            -0.37774688251825056, 
            0.7729099506303049, 
            0.7933347070071922, 
            -0.4860340998514944, 
            -0.7680413160472124, 
            -0.6762402406012851, 
            -0.03581526927227916, 
            0.456026612774999, 
            -0.5785951289809693, 
            -0.520987483895286, 
            0.6566705240269808
        ], 
        [
            -0.36165934369246255, 
            0.3826706802099266, 
            -0.4314823175616044, 
            -0.5288045299277176, 
            -0.06708137635340097, 
            -0.19525675613518761, 
            -0.5626347604526953, 
            0.5315203800824052, 
            0.3075772248306217, 
            0.06315211927271247, 
            -0.9831234737356004, 
            0.38674278037821597, 
            -0.5691243065773982, 
            0.26008633284800786, 
            0.27983724893223383, 
            -1.0135382789888092, 
            -0.36395096429145707, 
            0.7824789879235576, 
            0.579604202966203, 
            -0.24329011110810358
        ], 
        [
            0.15006453627916516, 
            1.8373815090663925, 
            0.8217378641457268, 
            0.9784949422132989, 
            -1.0211707965035806, 
            0.1628630771951012, 
            0.6936558907862184, 
            0.8746200524389067, 
            0.8786366618339347, 
            -1.4554317789652047, 
            -0.008238560723910696, 
            0.05694604122024413, 
            -0.594871587278295, 
            -0.31192358770429346, 
            -0.4018774890402929, 
            -0.7400750254619791, 
            0.4708333363234488, 
            -0.05391241090901797, 
            0.6176375035415336, 
            0.28851758932547655
        ], 
        [
            -0.4314064411615136, 
            -0.6429091618762273, 
            0.802650219993945, 
            0.0831329293524111, 
            0.9142361772765634, 
            0.2420199851186496, 
            1.0285392500267454, 
            0.14696147381761884, 
            0.09144647535139822, 
            -0.7292509166188555, 
            -0.3133595697342891, 
            -0.9894835220567023, 
            -0.6792121505402315, 
            0.5196472621124133, 
            -0.9478520504688657, 
            -0.27868522831360526, 
            0.7218905788948294, 
            0.4005657734655919, 
            0.38188427880152204, 
            -0.6240929691180386
        ], 
        [
            -0.1177709813543389, 
            0.16285192051381547, 
            0.9795023298326077, 
            -0.6192363735315435, 
            -0.47921326762925853, 
            -0.48159889434410713, 
            0.500288272151922, 
            -0.08604750267989661, 
            -0.8723683365820931, 
            0.017221886128152442, 
            -0.6006483592604082, 
            0.607690986627022, 
            -0.4045468037961039, 
            -0.915954306034687, 
            0.1522485693552376, 
            0.6871756441248357, 
            -0.1971089761678637, 
            0.493646739520037, 
            0.02224645340239315, 
            0.08603724660679489
        ], 
        [
            0.8869655218941915, 
            0.6790009646048676, 
            -0.9353205194574546, 
            0.41878867404025283, 
            -0.10524160130658543, 
            0.8639090679050546, 
            -0.5164213305472367, 
            -0.411036095099554, 
            -0.7984574627051202, 
            -0.142869065435622, 
            -0.8067323836639105, 
            0.22565286457439152, 
            0.605923965167946, 
            0.42197386893778055, 
            0.5237713318250976, 
            -0.3268631831140543, 
            0.6889010392740965, 
            -0.1272521115502278, 
            0.6480197354938183, 
            0.25162574621992934
        ], 
        [
            -0.7171044871246646, 
            -0.8185861726993168, 
            -0.9682054916401224, 
            -0.8665502155386715, 
            -0.06753643349769234, 
            -0.7762335558789538, 
            -0.9444365466768536, 
            0.5093952774164261, 
            -0.2103408872457319, 
            0.508370938907083, 
            -0.13640494923719115, 
            -0.10492460942132052, 
            -0.0535439634645541, 
            -0.035810690399760474, 
            0.5712596640626678, 
            -0.1910022578148982, 
            0.844647683706455, 
            -0.928326287824738, 
            0.5366132221258239, 
            -0.7503822671023936
        ], 
        [
            0.21814977739707972, 
            -0.9785796336880602, 
            0.07728404881516053, 
            -0.9929741022579791, 
            0.9027267804903354, 
            0.8055684326150457, 
            0.5938377242944994, 
            0.8338915759058464, 
            -0.6952075829447109, 
            -0.68576888761721, 
            -0.6516237539307639, 
            0.2448177158645075, 
            0.8114599956810911, 
            0.9799139853076123, 
            0.3895429993085371, 
            0.4512907849175336, 
            0.8156605276254989, 
            -0.1891042333166393, 
            -0.5006150458699103, 
            -0.6711084170036113
        ], 
        [
            -0.7491645465978821, 
            0.6238194120226377, 
            -0.7058020669918449, 
            -0.4127406041276329, 
            0.58405800801513, 
            -0.34974771152478573, 
            0.9664404484180936, 
            -0.49581825292497506, 
            0.06601591767498967, 
            -0.36822425943347387, 
            0.9537880639643059, 
            -0.31148353504825627, 
            -0.13282761537062446, 
            0.017118915619914476, 
            0.8873639895801454, 
            -0.9309273660581322, 
            0.38366780854365934, 
            0.7830205387950434, 
            -0.9437860405508822, 
            0.043881603327622296
        ], 
        [
            -0.42171827452086297, 
            0.896555169846177, 
            0.17757754048402621, 
            0.5663727906588116, 
            -0.18801751202694506, 
            0.25861773901384333, 
            -0.31990917839549327, 
            -0.9516407732929155, 
            0.18849218720378907, 
            -0.48160659162139663, 
            -0.02727741326162433, 
            0.740421068514102, 
            -0.12148766724281328, 
            -0.5530137170415775, 
            -0.33351895244632634, 
            0.8356940393454941, 
            0.799390438876922, 
            0.709632724868133, 
            0.8681302400347477, 
            -0.6435744216632344
        ], 
        [
            -0.8272660536938949, 
            -0.6374916207511997, 
            -0.39329034572544463, 
            -0.6834934296054193, 
            0.28671385773262786, 
            -0.22419483678016203, 
            0.6213642442221745, 
            -0.6207245619326679, 
            0.4525158131008458, 
            -0.5143415067638417, 
            -0.03179767757476382, 
            -0.2903007199253551, 
            -0.8833995633941848, 
            -0.5381042181380097, 
            0.2956574915773318, 
            0.0012725039899543452, 
            0.1579337262563953, 
            -0.6527199117677173, 
            0.13104715351159896, 
            1.077509272945327
        ], 
        [
            0.6563092475760459, 
            0.10359866705108693, 
            0.9378454274582826, 
            0.7675341989489424, 
            0.1846752484974564, 
            -0.9235828602855481, 
            -0.8135654125218619, 
            -0.9220973370287576, 
            -0.1137956758010982, 
            -0.20283731539257258, 
            0.9505625246792726, 
            -0.7054718397822067, 
            0.9495722655111942, 
            0.5443555123990124, 
            0.6351440993796795, 
            0.2895345855294528, 
            0.3626351471517023, 
            -0.04858118681167443, 
            -0.9782191717200339, 
            -0.28927255012877157
        ], 
        [
            -0.003935044278223595, 
            0.45878065813719204, 
            -0.06213012833411389, 
            -0.02652573740257069, 
            -0.7787948673607253, 
            -0.9491447475062529, 
            0.5181620707862004, 
            -0.3891899810728887, 
            0.9674761281195914, 
            -0.5566898294868575, 
            -0.1903415474200152, 
            0.0031954485815366856, 
            0.5097706442041122, 
            -0.07975090113621708, 
            -0.7407638789359287, 
            -0.3678226216163398, 
            -0.041051179317729544, 
            0.3486806462440965, 
            0.5419394250383645, 
            -0.7395493292686967
        ], 
        [
            -0.9499355691310744, 
            0.034323949137556146, 
            0.6199712920760567, 
            -0.9747928099407271, 
            0.36262474280138873, 
            0.37361655724141657, 
            -0.10150981821174965, 
            0.828711860324645, 
            0.2884768271087572, 
            -0.9726938302505331, 
            -0.04038973956936273, 
            0.7252268153175921, 
            0.6528068894536759, 
            0.31183349786917103, 
            0.3392885022462126, 
            0.16648232238793775, 
            -0.41513056339297943, 
            0.11854548899534764, 
            0.3309904758758437, 
            -0.2951103433681386
        ], 
        [
            0.7597055441916488, 
            -0.9488277274695173, 
            0.38799935099052285, 
            -0.6472630454558816, 
            0.7096658148702064, 
            -0.24760984642258685, 
            0.48896283014375264, 
            -0.30801451691552123, 
            -0.5095458303443924, 
            0.6200392230598905, 
            -0.6357327235164368, 
            0.6628191266479416, 
            0.45970907636420366, 
            -0.38851890155517027, 
            -0.7689124078820654, 
            -0.533908113473443, 
            -0.46737706907090615, 
            -0.28660008884788757, 
            -1.1167446846561049, 
            -0.6603578859138536
        ], 
        [
            0.3356436585046946, 
            0.640609411457875, 
            -0.8389282214799498, 
            -0.4965914092435568, 
            -0.5863543915803711, 
            0.8319361897230199, 
            0.422667820656659, 
            0.17607256645704852, 
            -0.3467449847467249, 
            0.6630073119530632, 
            -0.19125581133542116, 
            0.811645124449195, 
            0.4136330000912829, 
            -0.021126364416521735, 
            -0.7763931761376976, 
            0.9387670888205946, 
            -0.6718706608228414, 
            -0.5768895396307991, 
            -0.15596051901215816, 
            -0.26307033178518674
        ], 
        [
            -0.7652669012346196, 
            0.3967023142972469, 
            -0.6537066247050431, 
            0.1269734837793821, 
            0.5565646127885832, 
            -0.63050480935624, 
            0.1769891232031195, 
            0.43975060034729685, 
            0.29883445144445264, 
            0.24552046036954395, 
            -0.4481213376282499, 
            0.5157369299918737, 
            0.8811014690813034, 
            -0.06959925135889636, 
            0.4301852130977525, 
            -0.8666605239462736, 
            0.6348864026874657, 
            -0.6147235894602758, 
            -0.2395001843272632, 
            -0.24049514239403783
        ], 
        [
            -0.8533104939828815, 
            0.8612226660988473, 
            -0.26477845510283715, 
            0.0613762894779435, 
            -0.002243880498543398, 
            -0.782111323759576, 
            -0.5641231306130391, 
            -0.8385368869727271, 
            0.053505740942350236, 
            -0.4924841470776302, 
            -0.348158295814235, 
            -0.7751863498975577, 
            0.5727678548820747, 
            -0.7806851004987885, 
            0.9413311230148934, 
            -0.6689401599932031, 
            0.1949395860562763, 
            -0.9119859388683974, 
            0.5754714379817177, 
            -0.6228842304931025
        ], 
        [
            0.10931767435164161, 
            0.4547548340600615, 
            -0.6999974697479127, 
            0.1431141619792814, 
            -0.5829432723649017, 
            0.5811202720923867, 
            0.4405357485240421, 
            -0.7272974648684265, 
            0.654745139306775, 
            -0.9598809569352073, 
            0.8704878360001562, 
            0.05163303384249509, 
            -0.2065040227312569, 
            0.46300183012454943, 
            0.47848235468745637, 
            0.9871966352708739, 
            -0.45491937494361223, 
            -0.9926344438352945, 
            0.8777585041745088, 
            0.7248761236456934
        ], 
        [
            0.4393329270347611, 
            0.09672908006101467, 
            0.44229832711288564, 
            0.6115225419166397, 
            -0.28206982934801844, 
            0.5053037396940598, 
            0.535803069799589, 
            0.25542852871271243, 
            -0.16066455209181196, 
            0.3247247011596228, 
            -1.0186462515569912, 
            0.5497281958288768, 
            0.791641567453354, 
            -0.5049819718738697, 
            -0.8080762059033143, 
            -0.6054787487808095, 
            -0.39671319914560044, 
            0.7877780887718456, 
            0.0860213803948641, 
            -0.48487706862113517
        ], 
        [
            -0.7223103575457028, 
            -0.4224201485561716, 
            0.22557808621404868, 
            -0.43708847597280487, 
            -0.06605073669110996, 
            -0.11156702628616821, 
            0.6500740736480835, 
            -0.14766988026359687, 
            -0.31375313956505524, 
            0.3614145408916057, 
            -0.5668905071176892, 
            -0.05218624850914771, 
            -0.3646539603822186, 
            0.25768829681084077, 
            0.7547992540326811, 
            -0.09850739076840825, 
            0.6042919877262296, 
            -0.09084119272062623, 
            0.3118806802254922, 
            -0.7179979214982577
        ], 
        [
            -0.13403698343570206, 
            0.7811782182817645, 
            0.20961539249619432, 
            0.4787166459541885, 
            0.019354170460482076, 
            -0.01039670085628438, 
            0.6857862212460827, 
            -0.8644286722091695, 
            0.14510356438677624, 
            0.9084079303614148, 
            0.035616803872986186, 
            -0.5840867839002816, 
            0.6844107361705584, 
            -0.49240395861378455, 
            0.4014804905420032, 
            0.07908965389786743, 
            0.9246912970615154, 
            0.24284866017156892, 
            0.6755472546053829, 
            -0.9132871230798755
        ], 
        [
            0.9744387821782838, 
            -0.8661257858003689, 
            -0.36533002364559264, 
            0.8448569225674677, 
            -0.954618093968651, 
            0.6208370488033216, 
            0.7229937527870258, 
            -0.09993530506129222, 
            -0.46801416304770577, 
            0.5964794014775857, 
            -0.10572652601749674, 
            -0.7212319350003588, 
            0.8613228866006072, 
            0.8005285317703328, 
            -0.08916186846441018, 
            0.6984827005511577, 
            -0.13429923121185056, 
            0.38446990524656965, 
            -0.2143619246824888, 
            0.055933675879464226
        ], 
        [
            -0.7685760435382517, 
            0.9388228288523545, 
            -0.4215134966704024, 
            -0.5126874954880858, 
            -0.5778519743287863, 
            -0.9992215139032948, 
            0.5298886545771305, 
            0.2981619765983361, 
            0.745489430599887, 
            -0.17185443641702655, 
            -0.02044652852478433, 
            0.46006529407614, 
            0.5545963512506942, 
            -0.11026869100749234, 
            -0.10746833309680258, 
            -0.7942863569040804, 
            -0.322440121440061, 
            -0.6745034911203346, 
            -0.2461637431410597, 
            -0.679803021312095
        ], 
        [
            -0.18444305265957975, 
            0.9476572179733174, 
            -0.3585284246277975, 
            0.9650279007339729, 
            0.23743054897132215, 
            -0.24916865092923604, 
            0.7108276115062235, 
            0.23435335525027937, 
            -0.4999909713186169, 
            0.5886625898019351, 
            -0.06505185755265509, 
            -0.2975967801264679, 
            -0.33951883534881705, 
            0.3907329989942654, 
            -0.41116851808469335, 
            0.6275060793906793, 
            -0.43062833363808406, 
            0.07184611491413204, 
            -0.02249929120167491, 
            0.70292792607219
        ], 
        [
            0.7827325205232497, 
            -0.7032903932818668, 
            0.1640907789079279, 
            0.6944990809636845, 
            -0.08932951109169993, 
            0.8413810640087723, 
            -0.4435411420526115, 
            0.21024525183797657, 
            0.372079217319772, 
            -0.5422603739718463, 
            -0.9800732721380604, 
            -0.12788943122749333, 
            0.8679777073280325, 
            -0.3088512548298456, 
            0.5549345674983295, 
            -0.6421784984241744, 
            -0.31328129784489495, 
            -0.7108558136292071, 
            0.43311597143843317, 
            0.4771169544169651
        ], 
        [
            0.3354710084479309, 
            -0.4735729305084411, 
            0.36508189980184663, 
            -0.43659920463962526, 
            -0.17862578930276116, 
            -0.11788494714091625, 
            -0.31167306293245084, 
            -0.9852011411227873, 
            0.15782263634894683, 
            0.44750530327762833, 
            0.3674730888770451, 
            0.1389308168918912, 
            -0.6505701515217224, 
            -0.8227726077301539, 
            0.10184264895004409, 
            0.7291592955971952, 
            -0.7506902235949554, 
            -0.10949113381785884, 
            -0.12855180551041914, 
            -0.08480633257288953
        ], 
        [
            -0.6462614031804235, 
            -0.3105650010989642, 
            -0.4717830525347869, 
            0.8437793910741951, 
            0.4819261551996298, 
            -0.11750763590991264, 
            0.26233146129628676, 
            -0.7450052517313788, 
            0.014161820334486023, 
            -0.3458872265767845, 
            0.810058129407728, 
            0.22932658055448046, 
            0.25802254966199584, 
            -0.8149801400102592, 
            -0.13895082567232145, 
            0.9680168472525097, 
            0.8331988580804398, 
            0.2724707276483188, 
            -0.6922333649422124, 
            0.21919740396155873
        ], 
        [
            0.13154698049499067, 
            -0.07894631550241743, 
            -0.14243557071871815, 
            0.20110407215414555, 
            0.6854306977587057, 
            0.5794989967135088, 
            0.11745076348626837, 
            0.7915118264785802, 
            -0.8710429051048465, 
            0.982974260743553, 
            -0.8474375349142028, 
            -0.6073131683441566, 
            -0.15358665204709168, 
            -0.8376909409635594, 
            0.29705390132769266, 
            -0.9020317742182612, 
            -0.4624110484926853, 
            -0.8788650230060214, 
            0.41071047931617805, 
            0.33682350767964775
        ], 
        [
            -0.24282440587394677, 
            -0.6436006167754319, 
            0.4884538379556418, 
            -0.34649118724835815, 
            0.5906124407221601, 
            -0.02933268194647629, 
            0.05058222768106021, 
            -0.9429340544728915, 
            0.2986507168868022, 
            -0.29860608630191615, 
            -0.569000833173704, 
            -0.11025755498888365, 
            -0.23029679559710634, 
            -0.06037441114112967, 
            0.9490858968558996, 
            -0.27129487455824214, 
            0.5736886142386014, 
            0.10558528097819746, 
            0.7782247416246152, 
            -0.2733195307492479
        ], 
        [
            -0.5046065404138075, 
            0.7611533896412893, 
            -0.913140703184646, 
            0.8828371871879948, 
            0.1468654161929107, 
            -0.255764726656785, 
            0.973129995828157, 
            -0.8841459842466272, 
            0.03343986073978624, 
            -0.9076927753915932, 
            0.11407539308739997, 
            -0.5869725605719923, 
            0.2586226271033711, 
            0.9769881390220684, 
            0.7358680818083818, 
            -0.08700703842638519, 
            0.4537847404101948, 
            0.5524152468464558, 
            -0.03637162336080877, 
            0.05727375755810662
        ], 
        [
            -0.6966950972833712, 
            -0.2742833197285852, 
            -0.7169978793292838, 
            0.45354852953023045, 
            -0.04597356214331897, 
            -0.10218583921864699, 
            0.749991004860107, 
            0.04604415669810813, 
            -0.18653279593145802, 
            -0.4621831636690111, 
            -0.8599959152286129, 
            -0.16240835333495465, 
            -0.9497307284331498, 
            -0.4193341828831812, 
            0.004562342316392286, 
            0.9282361171860719, 
            -0.7609993790030082, 
            0.34608210628361763, 
            -0.0001355324057099719, 
            0.5548753574808729
        ], 
        [
            -0.7973369187986427, 
            -0.6601368749759617, 
            -0.2022003932994938, 
            0.5960989536162168, 
            -0.5241692721856168, 
            0.4903237371240032, 
            -0.3751265034447302, 
            -0.4256960169854252, 
            -0.9070577101804913, 
            -0.3139469186910294, 
            -0.487107559262776, 
            0.4332411118067677, 
            -0.8597334469320745, 
            -0.6953903128517296, 
            -1.029244593875094, 
            -0.804020411704273, 
            0.34005611696661386, 
            -0.17792158607616032, 
            -0.39210262700927934, 
            0.012384455292153183
        ], 
        [
            0.9735753250203778, 
            0.6933582808734267, 
            0.39955787391113146, 
            0.8372141660869311, 
            -0.9188698017373612, 
            -0.8737265037225004, 
            -0.04881585956775089, 
            -0.2958217695099542, 
            0.8936613081265243, 
            -0.042989846431659734, 
            0.0775603130986264, 
            0.7905193188704983, 
            -0.10672799136666983, 
            0.7719544765425878, 
            -0.5259506767472685, 
            -0.45993583215292905, 
            -0.3432831057600204, 
            0.10502307063619755, 
            -0.5649816607791108, 
            0.3323332153315332
        ], 
        [
            -0.6949256766918063, 
            -0.8406074584338559, 
            0.7438141427870508, 
            -0.5013933863602125, 
            -0.2570621880451721, 
            0.17070916444385476, 
            0.05128588328877184, 
            -0.8950221047779815, 
            0.7369800518597076, 
            0.9225295784667513, 
            0.7613422368158493, 
            -0.4474148817822819, 
            0.028970639850674124, 
            -0.38371778600003886, 
            0.1854084294432324, 
            0.9583499276522383, 
            -0.4462021016314279, 
            0.32699187897535054, 
            -0.3428887828597279, 
            0.54750180126029
        ], 
        [
            -0.44304588917480575, 
            0.9533642665010625, 
            0.495800620560869, 
            0.5252858895950143, 
            -0.01503094307272457, 
            -0.5696077076675558, 
            -0.890897350126405, 
            -0.26264220981065495, 
            -0.8535312234215254, 
            0.38108065595103335, 
            0.18455142322895732, 
            -0.1307381233985486, 
            0.5361244795319609, 
            0.12678114258428608, 
            -0.9928183956630597, 
            -0.7938832675555059, 
            -0.6209395405612343, 
            -0.33377491543715077, 
            -0.9988528461686008, 
            0.16243029837698908
        ], 
        [
            0.026931120230254967, 
            0.09963506542187298, 
            -0.19302882951687156, 
            0.6005845517130642, 
            -0.06891879621740007, 
            -1.0171841794067313, 
            0.6923683140547928, 
            0.2674963738708265, 
            0.6440729512462947, 
            0.9382511986002098, 
            -0.9340060262238269, 
            -0.46073693294791906, 
            -0.8812415168257954, 
            -0.12009076061878907, 
            0.7066059439549007, 
            -0.8102465246109207, 
            0.041872171968045616, 
            -0.7575231664101875, 
            0.4822900597304071, 
            0.8142362378496729
        ], 
        [
            -0.928744837743223, 
            -0.02429699965649647, 
            -0.5211768623619315, 
            0.9073871422803075, 
            0.8865744320167301, 
            0.2115617261792088, 
            0.9528422094474721, 
            -0.30185788055971624, 
            0.804322701867798, 
            -0.13084066439099648, 
            -0.5292170732543493, 
            0.8816485754392147, 
            0.36841999634401384, 
            -0.8591099208476433, 
            0.7302274003415714, 
            0.39449798451474605, 
            0.20694145585983598, 
            0.46526811557642533, 
            -0.4946435669270712, 
            0.18936699190690964
        ], 
        [
            0.6462561058883076, 
            -1.0392301883176647, 
            -0.7583178453334796, 
            0.46942898431844643, 
            0.3451839727814496, 
            0.022199868666236657, 
            -0.564084912361005, 
            -0.42113877724465876, 
            0.7556770375621478, 
            -0.12866192170728874, 
            -0.9025019483702377, 
            0.9269513336671191, 
            -0.6045935255537751, 
            0.6944440885678143, 
            0.6862080421111386, 
            -0.002803648806333151, 
            0.21329674736202356, 
            0.05388906216219725, 
            0.24261705615363754, 
            0.8213382370519935
        ], 
        [
            -0.42085601443590004, 
            0.7652975152116342, 
            0.13435924311835457, 
            -0.7958782311606655, 
            -0.5465560070547758, 
            0.19972904393452476, 
            -0.5373645648795423, 
            -0.799559944944224, 
            -0.6946565635634445, 
            0.7114665401612804, 
            0.2981281672640021, 
            0.9271051390043074, 
            -0.3076840717221964, 
            0.14166878185836623, 
            0.22685932623521782, 
            0.23173874432985894, 
            -0.8816479054027687, 
            0.49394178146890516, 
            0.9000113615660265, 
            0.09692820478414102
        ], 
        [
            -0.6206350684725983, 
            0.5308512840237822, 
            -0.9853516742714027, 
            -0.33142649390299495, 
            0.8492224129672786, 
            0.09742472210717927, 
            0.6901779175424827, 
            0.22408401829393337, 
            0.6956816490445592, 
            0.7531416722491673, 
            -0.5169658525222897, 
            -0.7407056204295112, 
            0.44107144046403235, 
            -0.060898578737007304, 
            -0.842031998934536, 
            0.15459727705042248, 
            -0.8469478036398432, 
            -0.6015987229900095, 
            0.5720205257825257, 
            -0.9874993172910753
        ], 
        [
            -0.39005491418462857, 
            -0.9899578740030865, 
            0.982032878728181, 
            0.12825223728386811, 
            -0.41324654689272555, 
            0.8577367281796143, 
            0.013526515372755187, 
            -0.09061432717954915, 
            0.17687811994051753, 
            -0.46664552626145217, 
            -0.4244658083654159, 
            -0.2563866801508759, 
            -0.5092525460400423, 
            0.1793840974575968, 
            0.370431414921598, 
            -0.8529483133028264, 
            0.9770072223644536, 
            0.505879749822778, 
            0.6074126765328739, 
            0.506231747374907
        ], 
        [
            -0.8633706356017364, 
            -0.032006617730259916, 
            -0.108626504226106, 
            0.34495447945293234, 
            -0.07858136486771525, 
            0.3682554370209738, 
            0.36807136439348376, 
            0.39858348878469435, 
            0.23980206612475055, 
            -0.7025399890238699, 
            0.41673991800446447, 
            0.5659885922348754, 
            0.8061343140423993, 
            -0.5222617551699478, 
            -0.7176592690842315, 
            -0.2324826660069658, 
            -0.3251720106180086, 
            0.6365268558980999, 
            0.21948381138380482, 
            0.5134699950751956
        ], 
        [
            -0.17657292083538406, 
            -0.7300396925612476, 
            -0.7698966286041101, 
            -0.25317156494794674, 
            -0.6475490294145868, 
            0.6103041823607315, 
            0.2399852176532231, 
            0.4325103835690444, 
            0.020814530148948327, 
            -0.8237593602788332, 
            -0.5546146383297065, 
            -0.11871649486620002, 
            -0.6028195034716772, 
            -0.9206746517449383, 
            0.4501439661858607, 
            0.43806207163714433, 
            -0.3420184340578551, 
            0.7021985905782026, 
            -0.14311505342866992, 
            0.7280057184984083
        ], 
        [
            0.1804942564891773, 
            0.3586058592938721, 
            -0.592226568648901, 
            0.3075937692484236, 
            0.7201586430693294, 
            -0.4243715707608909, 
            0.8315737920136186, 
            0.9348047057649211, 
            -0.3082733695114637, 
            0.19881425047889023, 
            0.7623008959392822, 
            -0.9427034522357014, 
            0.7437151095192394, 
            -0.5221682319290165, 
            0.6273231859247872, 
            0.2604875321494268, 
            -0.30638206870304746, 
            -0.667620120929582, 
            0.20600637305082237, 
            0.4976784242497688
        ], 
        [
            0.6593632911340687, 
            0.21459941420426293, 
            0.9130137118978102, 
            0.19275842803496418, 
            -0.6446344474314419, 
            -0.11660168302083478, 
            -0.3301527941188122, 
            0.9836321953056536, 
            -0.2625802162342405, 
            1.021702309982441, 
            0.14670770556974086, 
            -0.6891595400648283, 
            -0.8624821726831671, 
            -0.30777684282008155, 
            -0.6775700020020415, 
            0.2874853531727051, 
            -0.17454711406141157, 
            0.9640659101473976, 
            0.8685618726421228, 
            -0.6988645907284934
        ], 
        [
            -0.3095661342215286, 
            0.14190578650092525, 
            0.1639582049550738, 
            0.7227857564858574, 
            -0.06531092275488233, 
            -0.19600924830571118, 
            -0.44075471425571805, 
            0.8466915446189596, 
            -0.914049182883539, 
            0.5271562777005849, 
            -0.646655787395723, 
            0.28867596944088847, 
            -0.2938233557527516, 
            0.9689993041650707, 
            -0.8830931274688616, 
            -0.6429216971888626, 
            0.7657664646898601, 
            0.1669313488861141, 
            -0.3918540188040777, 
            -1.0031844442245166
        ], 
        [
            -0.48677595566315685, 
            -0.7648547207302117, 
            -0.6316605139095165, 
            0.7447388938369401, 
            0.7381959932935463, 
            0.3515578550937275, 
            -0.07291364252350088, 
            0.6016535383871653, 
            -0.03340878369206024, 
            -0.1673069347216586, 
            -0.4366655918342025, 
            0.8878798406852109, 
            -0.24043835526823132, 
            0.02524828477818459, 
            -0.46412095727232233, 
            0.813588177938646, 
            -0.19393157953202325, 
            -0.4190193583018881, 
            0.44142366226844654, 
            -0.5176704088376167
        ], 
        [
            -0.7618174049779709, 
            0.637665319162466, 
            0.48927467545501474, 
            0.1438731426124502, 
            -0.4999349616049411, 
            0.24647319826901654, 
            0.27621223119328747, 
            -0.3448492690066075, 
            -0.8901386840629724, 
            0.7782809040735076, 
            -0.08269193164114999, 
            0.5448862781757104, 
            -0.4842092777888767, 
            0.17277916548005615, 
            -0.13943154801804708, 
            -0.2341576671458553, 
            -0.7278900563617853, 
            -0.5156395043517821, 
            -0.8413721476770372, 
            -0.3543393115023062
        ], 
        [
            0.4812905172843823, 
            0.23023714970564493, 
            0.34482221894207743, 
            -0.9671095684822446, 
            0.3612116392018357, 
            -0.003855632043589635, 
            -0.5374773221957211, 
            -0.6347606366187318, 
            -0.6023512652925618, 
            0.684533647292923, 
            0.919473180125242, 
            0.8203722438231056, 
            -0.30417771052189296, 
            0.5608876452530781, 
            0.05542959888454804, 
            0.6257232323074674, 
            -0.025922393279301344, 
            0.19191321016400248, 
            0.5694781221673173, 
            -0.7995371067475704
        ], 
        [
            -0.31437057346261627, 
            0.10988041362478798, 
            0.3055573160539584, 
            1.1219148750086634, 
            -0.3076444849634361, 
            -0.4137733144735958, 
            0.6950844118147651, 
            0.650706584981188, 
            0.07254253449696549, 
            0.09861771724163, 
            -0.8734868205702383, 
            -0.89035086684415, 
            -0.1106724317884623, 
            -0.09213767539184321, 
            -0.8496612313533065, 
            0.6534572257240728, 
            0.3915371434738687, 
            0.2447576338201066, 
            0.32421067989076086, 
            -0.3280783321180674
        ], 
        [
            0.20282754090371402, 
            1.0494166586951945, 
            0.8279104823278629, 
            -0.3159779373588894, 
            -0.5956966756738419, 
            -1.0167811274362366, 
            1.0895366231855437, 
            -0.23747563571682273, 
            0.5332059471031856, 
            -1.11634032123388, 
            -0.8315926544291821, 
            -0.1422865848588696, 
            -0.7929119319509299, 
            -0.03289203349904606, 
            -0.18312987676375858, 
            -0.3785904950661006, 
            0.03128055270545203, 
            0.12208603357790804, 
            -0.3501865917077456, 
            -0.002820616788243021
        ], 
        [
            0.3708508504550699, 
            0.4267911734056909, 
            0.15029975257364886, 
            -0.1011338264986346, 
            0.1980302332893594, 
            0.9172710172113854, 
            0.17802111734682272, 
            0.940739070296755, 
            -0.1881787018568333, 
            0.44257074336585794, 
            -0.7595858560858597, 
            0.3950861864057449, 
            0.0213935517371671, 
            -0.9714164035262689, 
            -0.30216417532534035, 
            0.053763928917830474, 
            0.4896183916488439, 
            -0.9045813233341916, 
            0.17839547312483617, 
            0.5942446163009033
        ], 
        [
            0.31152699766748293, 
            0.7927628246837047, 
            -0.8547421289455126, 
            -0.5336874768356262, 
            0.8419929145870914, 
            0.5008601682110833, 
            0.19558664926864194, 
            0.6656152768721033, 
            0.8078748678821144, 
            0.9884649271721737, 
            0.9609482677821821, 
            -0.7090168197389338, 
            -0.8652990924852214, 
            -0.847088380160129, 
            -0.9858529758401954, 
            0.9549651241622048, 
            -0.7501341599666761, 
            0.6658931491579132, 
            0.36962742991657116, 
            0.041577346264020175
        ], 
        [
            -0.3368568484265267, 
            -0.13001794980538894, 
            -0.48281773080224233, 
            0.811327918196626, 
            0.37740936484963233, 
            -0.9717097062237705, 
            -0.08039218655946606, 
            -0.3406492046355956, 
            -0.9241236074808807, 
            0.6962640551974317, 
            0.4855353014328863, 
            -0.4024114409226415, 
            0.5916534037358533, 
            -0.31754966344968377, 
            -0.5114792604332707, 
            0.7953974385927816, 
            0.988683772565183, 
            0.039592210648859046, 
            0.8959690287594269, 
            0.6534636671338121
        ], 
        [
            0.03596825594296863, 
            -0.24708553623953033, 
            0.4205700006043276, 
            -0.08867025837663461, 
            0.2104755628682187, 
            0.9808023344502049, 
            0.5519925878498547, 
            -0.32086517773030193, 
            -0.821556662900585, 
            -0.6446494267030684, 
            0.03231073696650283, 
            -0.16595291986756844, 
            0.5983274800374546, 
            0.8746007894261624, 
            -0.6553113900869707, 
            0.710504757635354, 
            0.9372497019376756, 
            0.9242995091747551, 
            -0.9242791420538239, 
            -0.906457947178741
        ], 
        [
            -0.9883909541009521, 
            -0.39482606170785955, 
            -0.8941836401487891, 
            -0.45572497952032853, 
            -0.28111716843450707, 
            0.9014993111837581, 
            -0.046953653636038144, 
            -0.44168651892061517, 
            0.016332700204183887, 
            0.28743387344445565, 
            -0.8088447509505611, 
            0.5697730312827363, 
            0.7085362753121925, 
            0.6904756504133247, 
            0.7656760647492589, 
            -0.23671336536001028, 
            -0.052036897800508186, 
            -0.7974111348934192, 
            -0.5484278217204268, 
            0.9595997769848573
        ], 
        [
            -0.4160534125310542, 
            0.8508511138804308, 
            0.7566445768083645, 
            0.889467978854491, 
            -0.7513348688285092, 
            0.8061124529663551, 
            0.27182899966582436, 
            -0.6130168266748776, 
            -0.3464685792946316, 
            -0.6722912668977123, 
            0.01725549185094902, 
            -0.873901930681207, 
            -0.6903143407559692, 
            -0.6480405859483958, 
            0.4006735366031854, 
            0.13878829368134832, 
            0.7136437462341607, 
            -0.5306318919653025, 
            0.30193401541131254, 
            -0.933552461385826
        ], 
        [
            0.03299914794229626, 
            0.6290493891583232, 
            0.9017791599747457, 
            -1.1090236540395861, 
            -0.491524208629761, 
            -0.5637081335554878, 
            -0.911093899699675, 
            -1.0021687686555665, 
            -0.0017895748500156396, 
            -0.8515352975129307, 
            -0.4703202808016353, 
            0.4009828430250119, 
            -0.41345347605076543, 
            -0.4554273384249954, 
            0.15386756408210056, 
            -0.20990721396059323, 
            0.43372134789055206, 
            -0.011865067495594508, 
            0.20447051199608154, 
            -0.2339011600148425
        ], 
        [
            -0.42552603579877823, 
            -0.7386940334140706, 
            0.8582927867128861, 
            0.6150863725948275, 
            0.8758141834542886, 
            -0.6278550165381664, 
            0.8663113001256991, 
            0.8560718444957289, 
            -0.44056624764542895, 
            -0.4507315815040393, 
            0.10340574745309511, 
            -0.6320289353822188, 
            -0.11571423471729411, 
            -0.6320148903074909, 
            0.8957659859582411, 
            -0.016747841135634094, 
            0.9278211809768433, 
            0.2720762114113782, 
            -0.0312308066288665, 
            0.9353478210541579
        ], 
        [
            -0.8331567845812599, 
            0.1822025245991202, 
            0.36045247206967196, 
            0.026038470897609585, 
            -0.898518961213692, 
            0.09858709952370867, 
            -0.059792500670107086, 
            0.42002869150632455, 
            -0.5177037352959863, 
            -0.34263585219803583, 
            -0.31827240408861035, 
            0.5414980937886371, 
            0.9415412372295202, 
            -0.6339681035450265, 
            0.5501540634382327, 
            -0.5841711587501246, 
            -1.0891408482924987, 
            -0.7363456827816531, 
            0.9226613000097024, 
            0.800997678784328
        ], 
        [
            -0.444710068467611, 
            0.9730057828109285, 
            0.7170265783975979, 
            -0.022248434273652733, 
            -0.08822185626413422, 
            0.2490084584414669, 
            -0.6260397454214855, 
            -0.9067618300555035, 
            -0.40955051430251443, 
            -0.9697499443137885, 
            0.22626261382613239, 
            0.0503547624460581, 
            -0.3572079815018539, 
            0.5712203410532709, 
            -0.8634798243109083, 
            -0.5295085849495786, 
            -0.40252178074822503, 
            -0.5996291857786255, 
            -0.8691779328481161, 
            0.6987448342299527
        ], 
        [
            -0.8243007511729897, 
            0.36116832784449765, 
            -0.7592534041688469, 
            -1.0003740946628192, 
            0.12810944783635445, 
            0.7876649252976059, 
            0.7004498424515591, 
            -0.3146187320378613, 
            -0.9456722606070754, 
            0.604119518279847, 
            0.5698716157077629, 
            0.7649202610289172, 
            0.3401731474019164, 
            0.6370650167433474, 
            0.7949959129080787, 
            -0.09290355945692064, 
            0.1626011562686509, 
            0.011866097520795215, 
            0.38244505670997314, 
            0.3659466961890251
        ], 
        [
            -0.05269828431831013, 
            0.7625763999202319, 
            0.01538833958225559, 
            0.7820596338722904, 
            -0.43777281150039193, 
            -0.6917661318255217, 
            1.0167003755054203, 
            0.6192396936545947, 
            -0.45030195548491503, 
            0.07508871204919874, 
            0.8036553397113327, 
            -0.8974288820143842, 
            -0.8342529207240834, 
            0.25286335361827317, 
            -0.5845813093453639, 
            0.47338349838758637, 
            0.123101084748506, 
            0.33897275667511173, 
            -0.787087798397651, 
            -1.0047214009380705
        ], 
        [
            0.29046554491443777, 
            -0.21545566722393675, 
            -0.8270276743528217, 
            -0.1817065413089112, 
            0.2385930639416623, 
            -0.5031641903471366, 
            0.7706179951623489, 
            0.8305041174400132, 
            0.9074290234272808, 
            0.5000917878905539, 
            0.042294621036499704, 
            0.38464807192317063, 
            -0.4348937032060021, 
            -0.47510810367834655, 
            0.32910239662650315, 
            0.20870687268689275, 
            0.6356950976278445, 
            -0.4932477613355475, 
            0.5879002726313514, 
            0.8754947762576577
        ], 
        [
            -1.0027540312889744, 
            -0.025427191276907967, 
            0.340217163051402, 
            0.7122044173967643, 
            -0.6335423333594526, 
            0.7115359744513244, 
            -0.26790199198341397, 
            0.8182948133483399, 
            -0.935246544431403, 
            -0.8306784934965518, 
            0.9604044332344216, 
            0.217944905707294, 
            -0.16914053425759001, 
            -0.653558740537352, 
            0.2779906015630755, 
            -0.9352880248100438, 
            -0.3903083096453287, 
            -0.3466566068136757, 
            0.21488411587036965, 
            0.2993723375130284
        ], 
        [
            0.7069742872273147, 
            0.8529483840455193, 
            0.31989403810225536, 
            0.13026352372259994, 
            -0.20312725022607925, 
            0.9409892579927769, 
            -0.7080986950241882, 
            0.7277823512781517, 
            -0.39632585604143233, 
            0.11869968302201114, 
            0.45789337634421023, 
            -0.5270897327200658, 
            -0.6635691282137129, 
            -0.032617387552302736, 
            0.6126164994577187, 
            0.38515909425611194, 
            -0.7620556454281838, 
            0.7947918424629989, 
            -0.036932500710917644, 
            0.920923448904263
        ], 
        [
            0.10723832467311903, 
            -0.8304051117045982, 
            -0.6083728204340797, 
            0.7077932252093209, 
            0.4192184493937621, 
            0.8373834748520999, 
            -0.35646000160072283, 
            0.0427437268123469, 
            0.26391213189695284, 
            0.18858172919393767, 
            -0.5212390211327712, 
            -0.13362955188477627, 
            -0.4986707857752642, 
            0.6256888476848701, 
            0.9982193494307757, 
            -0.8648261031682848, 
            0.41392299218511935, 
            -0.3549762218133858, 
            0.25137062493045714, 
            -0.4837406948801301
        ], 
        [
            0.2943873663962569, 
            -0.200111945519988, 
            -0.40486093921788363, 
            0.8403843948523566, 
            0.8985556530845034, 
            0.20043046886186838, 
            -0.5709741537474056, 
            0.9239662589936212, 
            0.5449615811092943, 
            0.4955932487196674, 
            -0.6632520442627664, 
            0.6431749870217375, 
            -0.5246808212819828, 
            0.27237275596844335, 
            0.3942295828040999, 
            0.46096364860214345, 
            -0.21383648660846466, 
            0.5242539307284299, 
            0.7941784704223308, 
            0.1484819650681704
        ], 
        [
            -0.7209504432903905, 
            -1.195133874765691, 
            -0.996846274400828, 
            -1.2663996225134015, 
            -0.4974792506826441, 
            0.4771688494224334, 
            -1.041184784227964, 
            -0.5972412519582861, 
            0.7529262121813264, 
            1.2270204008456698, 
            -0.2696719863934406, 
            1.3962817416319315, 
            -0.9409883150977548, 
            1.1160290550181733, 
            -0.5099690812842829, 
            0.6093229592908876, 
            1.1880150952457957, 
            0.5878794662341136, 
            -0.23722934791309927, 
            1.2237076026304576
        ], 
        [
            -0.44050558258294176, 
            0.7133471035082013, 
            0.15879012602971826, 
            0.9372864557156156, 
            -0.9247845402652876, 
            0.5109405534769574, 
            0.06504091692474664, 
            -0.1560153733887245, 
            -0.5891444389987243, 
            -0.32581120589429974, 
            -0.445775320647279, 
            -0.5446810793950568, 
            0.5965808179299942, 
            -0.04409726092041684, 
            -0.7753631089300536, 
            0.5885505387063295, 
            0.1441105482913814, 
            0.4563240703759563, 
            0.02338179706805721, 
            -0.09219919945384523
        ], 
        [
            0.9787661433606153, 
            -0.9633756895306425, 
            0.8600871192896044, 
            0.836025004473712, 
            -0.2152384051928737, 
            -0.5676281393220464, 
            0.2371163788218116, 
            -0.689491164971505, 
            0.6054644215425877, 
            -0.4731664329514044, 
            -0.41924340468830934, 
            0.8505753210273295, 
            0.8037482888690192, 
            0.06594838740381691, 
            0.7281065064636512, 
            -0.28871746785450764, 
            1.0000449909734945, 
            -0.13312579469594923, 
            -0.4209621640813634, 
            -0.8874656800534054
        ], 
        [
            1.0128321384525294, 
            -0.15615545246366844, 
            0.4680916769009539, 
            0.2241047838765819, 
            0.47591250015608855, 
            -0.8892950103378764, 
            0.8214031497326543, 
            0.8091460214924308, 
            0.08860876010675495, 
            0.9310359928513401, 
            -0.4424068979749019, 
            0.20509676059868384, 
            -0.20681251993229036, 
            0.2562337780035409, 
            -0.3810382041571032, 
            0.638075947794506, 
            -0.8599466737197099, 
            -0.9293402093149941, 
            -0.9012269450112238, 
            -0.6459207148361352
        ], 
        [
            -0.2075629464383731, 
            0.897696807561953, 
            -0.7798495060829448, 
            0.29486699447395953, 
            0.055243465964853154, 
            -0.29345870066606106, 
            -0.6256064788302119, 
            -0.5680052242303412, 
            -0.9170714403108812, 
            0.4263607382253262, 
            0.30366041282436124, 
            -0.11114103533614378, 
            0.4366412829333699, 
            -0.7816901190973947, 
            0.8749816693574602, 
            0.6916234056254024, 
            0.33830611194158877, 
            -0.2423376648261482, 
            -0.16686681657461538, 
            -0.03501325675575444
        ], 
        [
            0.860952225546457, 
            0.8732289202552541, 
            -0.04066270495481846, 
            0.16157354758341466, 
            0.7357946895948799, 
            0.8423544977216637, 
            0.2811161796398247, 
            0.5066169751389193, 
            -0.2734676501648719, 
            0.7946004291861476, 
            0.5948731965155191, 
            0.019221910177266363, 
            0.726947083532038, 
            0.7293069533255979, 
            0.46040035517812117, 
            -0.746631790553798, 
            0.06897007575611082, 
            0.8122543172715275, 
            0.5148920962679369, 
            -0.20899292245501336
        ], 
        [
            0.9491318367336417, 
            -0.4147687738541379, 
            -0.3244123661948635, 
            0.939444565721367, 
            0.5483905825883308, 
            0.7515894568722453, 
            -0.9755463571842102, 
            -0.15801380063555526, 
            -0.4491501348347098, 
            -0.4100834234563624, 
            0.411629450483615, 
            0.3856422738428366, 
            -0.059407675864868996, 
            -0.23204218746892874, 
            0.14732271509064176, 
            0.022040982363052724, 
            0.07937443269914901, 
            0.2448219346276132, 
            -0.2373510242699393, 
            0.4654610384874739
        ], 
        [
            -0.4898432298423289, 
            0.37031392697458226, 
            0.9518142131320062, 
            -0.799497259786697, 
            0.42464118184746397, 
            -0.7096927825701566, 
            0.09338662052963065, 
            0.24169257584511575, 
            -0.5764763592016734, 
            0.787683974620799, 
            0.44778676210230245, 
            -0.6854071222692962, 
            0.5370558966022874, 
            -0.7912778870952673, 
            0.22991025400602566, 
            -0.8255828893411249, 
            0.06995359195988594, 
            -0.49133857862697816, 
            0.3805320106883138, 
            0.42369094896131415
        ], 
        [
            -0.009331440726096613, 
            0.5073999603536755, 
            0.6722086593751867, 
            0.7786971599224001, 
            0.1627812332908645, 
            -0.11375183008691413, 
            -0.1304238888623864, 
            0.8783367079934173, 
            0.41754021534251856, 
            -0.651438854571836, 
            0.24635486586409192, 
            0.7929982984044712, 
            -0.721280374480784, 
            0.6560082682136951, 
            0.571708298280913, 
            -0.04898042760333316, 
            -0.9381936870772598, 
            -0.720202261840946, 
            0.815100322589689, 
            -1.0708738800368969
        ], 
        [
            -0.2572329399903627, 
            0.14596817613035984, 
            -0.6281475001255153, 
            0.9291343321625521, 
            -0.6155240001254404, 
            0.027990723540065248, 
            0.22468386926103476, 
            -0.5290054611313214, 
            -0.01861926799309207, 
            -0.013035698196260482, 
            0.3534888973966023, 
            0.280285591180814, 
            -0.06222825622917264, 
            0.3381535263291859, 
            -0.12579276608785875, 
            0.058195499951710854, 
            0.43703784122576683, 
            -0.639769448077839, 
            0.5657145527636968, 
            0.2897330976057169
        ], 
        [
            0.9542708828953033, 
            -0.549166809254918, 
            -0.041331650837386436, 
            0.7813890215212526, 
            0.23408015980796917, 
            0.44236307293888955, 
            -0.17240874006328208, 
            0.40237495043616917, 
            0.9131566832217545, 
            -0.5986933495065523, 
            0.5768684159254737, 
            0.9520111115893785, 
            -0.974527665944493, 
            -0.5326668251457247, 
            -0.8213953264069416, 
            0.5243269733384671, 
            -0.8002768362931092, 
            0.9944024333885751, 
            -0.22081216517470476, 
            0.8188048687935996
        ], 
        [
            -0.6463768775825655, 
            -0.08015695728127839, 
            0.6740101052626183, 
            0.20695010888988602, 
            -0.08348533292784632, 
            0.009598858379835927, 
            0.19843478113512894, 
            -0.08226806034973838, 
            -0.6146062814366423, 
            -0.772973970711377, 
            -0.7254446468075607, 
            -0.9670307608556089, 
            0.1103348636204124, 
            0.6945926284003627, 
            -0.2809159746596047, 
            -0.866993224892729, 
            -0.18944786300166647, 
            0.19793445148211092, 
            -0.15418929589424246, 
            0.5953512815123793
        ], 
        [
            0.8837358888007325, 
            0.7214319119838096, 
            0.4078820949129478, 
            -0.12048964553896019, 
            0.3686899472035783, 
            -0.9747453278371171, 
            0.9608029504982184, 
            -0.6454147903115229, 
            0.8358326082997866, 
            0.6176099656811189, 
            0.5204735951705156, 
            -0.41633011321983704, 
            -0.5600833613734154, 
            -0.10869221745122476, 
            0.6419386825080158, 
            -0.09975111827277013, 
            0.9243645079754762, 
            -0.29675196436651385, 
            0.23703714735735654, 
            0.9791983887251734
        ], 
        [
            0.24139094966236835, 
            -0.9098131491576543, 
            -0.06950053207808694, 
            -0.2619150751617218, 
            0.028337051644402894, 
            -0.43542612454058316, 
            -0.7361558026746243, 
            0.32750293547817133, 
            0.36650695880235223, 
            0.6525463075233859, 
            -0.7477282419277658, 
            0.5609082628735522, 
            0.6527070734666319, 
            0.29354420373379664, 
            -0.5928713188029293, 
            -0.4837927986170535, 
            -0.1474435037512556, 
            0.09065356893362517, 
            -0.04312768545927225, 
            -0.0912576431926383
        ], 
        [
            0.6812999531455738, 
            0.7180425079427565, 
            0.6258670616176307, 
            0.7365090556317488, 
            0.15157461724407506, 
            0.9029595141378111, 
            0.19220373809882693, 
            0.2125483019685543, 
            -0.36464233850727923, 
            0.37523414884216316, 
            -0.9375356003518804, 
            -0.7068939168322819, 
            -0.7479007889995286, 
            0.33190136769551515, 
            -0.636618570214157, 
            -0.31820534432203584, 
            -0.8644972703119205, 
            -0.5330215852113612, 
            0.9273228857489827, 
            0.018694965049856547
        ], 
        [
            -0.7066095362564323, 
            0.05595409342718037, 
            0.8814741445043298, 
            0.7053884823747868, 
            -0.23894740246693935, 
            -0.4581990649448408, 
            0.5534431053120046, 
            -0.5186023594953819, 
            -0.4531363148879921, 
            -0.8338718335841943, 
            0.69738222708962, 
            -0.09489806027986027, 
            0.1414985169783966, 
            0.4934998367285382, 
            0.5644688828929522, 
            -0.11588926850076564, 
            -0.6068765400563501, 
            0.6575926923063673, 
            -0.9380417010413103, 
            0.8844070846674944
        ], 
        [
            0.15687995901048432, 
            0.7379543306388626, 
            0.21687889599343796, 
            -0.4966765440776048, 
            -0.4079092123994198, 
            0.06656609346200132, 
            0.924155791745938, 
            -0.6472482172079154, 
            0.007884317995544078, 
            -0.31238948052993615, 
            0.5507149673940963, 
            0.6057158668830621, 
            -0.1513338264735337, 
            -0.6118413870531524, 
            -0.8602318809290234, 
            -0.600190466947349, 
            -0.45519905173017366, 
            0.19450812902063322, 
            0.7506946232696057, 
            -0.7437340411178791
        ], 
        [
            1.0438869973467275, 
            0.28159295213758306, 
            0.4854425188412019, 
            0.7075715533206358, 
            -0.09718752262781508, 
            0.17920714544830488, 
            0.2829239915577507, 
            -0.10975751820403121, 
            -0.5202380981255706, 
            -0.5748797332725201, 
            -0.5368071059536331, 
            0.5450154816043802, 
            0.27012706574922457, 
            0.5280707849526649, 
            0.1784042159981571, 
            -0.4682986184414958, 
            0.13179986409451475, 
            -0.3762573808368963, 
            -1.0418736897949912, 
            0.7992434909066382
        ], 
        [
            -0.18243409686019627, 
            -0.1048916192472128, 
            0.4827579207811196, 
            0.9041972618342813, 
            -0.861611635245808, 
            -0.6649589254931404, 
            -0.3133680915955168, 
            -0.45062360140896396, 
            -0.007743375718896064, 
            0.6480144288364884, 
            0.679538151249449, 
            0.13203330529158633, 
            -0.5233289898991655, 
            -0.6258048138188708, 
            0.4867564804399837, 
            -0.5308628922038733, 
            0.04799147923902732, 
            0.5102815161274022, 
            -0.5487799550893638, 
            -0.6770345028383368
        ], 
        [
            -0.9116534446080573, 
            -0.7217948330005447, 
            0.6944028401547151, 
            -0.7781880535460991, 
            -0.5481217382708929, 
            -0.9343350664686321, 
            0.35262249059120976, 
            -0.5537651974925741, 
            -0.1800091113171867, 
            -0.7034882300719003, 
            -0.25380195668269506, 
            -0.15374996123266524, 
            -0.06212794644191225, 
            -0.144253377013527, 
            -0.777113615794018, 
            0.5554531867885206, 
            -0.6889828868526913, 
            -0.15448381735049288, 
            -0.46853399818554253, 
            -0.3976910054182163
        ], 
        [
            0.33606856434872423, 
            0.06549961442015853, 
            -0.6198147022537009, 
            -0.06046489719183887, 
            -0.34400750864597684, 
            0.3881948599103243, 
            -0.5170695541874833, 
            0.6903210190711527, 
            0.08067162845182796, 
            -0.0008863049316304038, 
            -0.49612346090523357, 
            -0.6403602446348043, 
            -0.04320416862741737, 
            0.9836792483058668, 
            -0.7528155645420728, 
            -0.4439296663305763, 
            0.6012823485924552, 
            0.32963069839285747, 
            -0.44248336672059724, 
            -0.39652900794980306
        ], 
        [
            -0.23019761101068958, 
            0.2999990510922738, 
            0.44347174412495916, 
            0.7858890797272677, 
            0.3219276296762629, 
            -0.5474993230220876, 
            0.8999553811835223, 
            0.6126840739081613, 
            -0.36570006798069943, 
            -0.47196995876879977, 
            0.7364342424787613, 
            -0.8079204509256533, 
            0.26722472529471836, 
            -0.41152953245880514, 
            0.5628140839407424, 
            -0.3028101786653701, 
            0.45518963865486567, 
            -0.598303997393258, 
            -0.03661944092375146, 
            0.5606227047032746
        ], 
        [
            -0.2563515887413078, 
            -0.5940207564511484, 
            0.2823360546741563, 
            0.37633867804143695, 
            -0.3649712620636204, 
            -0.3198288047086657, 
            0.88010454543053, 
            0.809491832573997, 
            0.5723361602257475, 
            0.09784275089296726, 
            0.475389689349007, 
            0.9004957660745485, 
            -0.9982816461932662, 
            -0.06376448462409054, 
            -0.08269742930491011, 
            0.3861569674091143, 
            -0.8046816890515995, 
            -0.1603514934851139, 
            -0.4627646557726062, 
            -0.10007172879172929
        ], 
        [
            -0.0036566627632195017, 
            0.31492218613582995, 
            -0.02339570494448513, 
            0.2463510817736141, 
            0.1646368209200291, 
            -0.14195126975605696, 
            -0.9900474960982212, 
            -0.6264017431693336, 
            -0.36724196628016037, 
            -0.7060438266419029, 
            0.19787036331922217, 
            0.22039153919988727, 
            0.0002700632230337136, 
            -0.36095237898112875, 
            0.3075302540992326, 
            -0.6238301907597164, 
            -0.9882523909818959, 
            0.4520769037548776, 
            -0.1128546688857677, 
            0.39564064123145454
        ], 
        [
            -0.6584264643089581, 
            -0.8524156565113806, 
            -0.2503198038374992, 
            0.40958790690871316, 
            -0.8276073878915727, 
            -0.6364680027094516, 
            -0.0507181683577962, 
            0.24746201086561553, 
            0.5517777700198774, 
            -0.7815924781351394, 
            0.24154417447830623, 
            -0.25699187225430326, 
            0.3458609244469438, 
            -0.5521121148404257, 
            0.060258567868893026, 
            -0.6813673458331706, 
            -0.973994013261544, 
            -0.024891003266740274, 
            -0.6326893501756998, 
            0.24325475469561791
        ], 
        [
            0.0851828402279732, 
            0.5075309732457747, 
            -0.2400214082544402, 
            0.9461263508235185, 
            0.061824576757774294, 
            -0.042247381883448655, 
            0.49882150286559873, 
            0.11373514650351871, 
            -0.27686233603339816, 
            -0.018645499792886128, 
            -0.6308602025435557, 
            -0.20868050196561544, 
            -0.9466272960280181, 
            -0.07524543096514294, 
            -0.44808629126136384, 
            0.05260021753570103, 
            -0.8980480823018749, 
            0.09821454800555028, 
            -0.4300512255859612, 
            0.2153072838644618
        ], 
        [
            0.47831293957154236, 
            -0.19173879713668313, 
            0.3160599829625895, 
            -0.6130058741879574, 
            0.9959477098223626, 
            -0.516563984151761, 
            0.8790298282716029, 
            -0.5877579163997567, 
            -0.005530845676225449, 
            0.6446318753160509, 
            0.4297107271034182, 
            0.43630885331286207, 
            -0.1409460344039723, 
            0.5121778619479321, 
            0.8593297804265295, 
            -0.10878968018605223, 
            0.05750063749714491, 
            -0.8810516373083388, 
            -0.21866656652949565, 
            0.013064340219784755
        ], 
        [
            0.755566891777413, 
            -0.7737551923107867, 
            0.47994567048534426, 
            0.10695167805781224, 
            0.21315697382914553, 
            -0.9560125902858755, 
            -0.6845602894222981, 
            -0.3969253356156867, 
            -0.9902451729906782, 
            0.3377399589558222, 
            0.6939279462563555, 
            0.06805020167477689, 
            0.08663993623455556, 
            0.2416120455084729, 
            -0.43468123952938087, 
            -0.28943938704420025, 
            0.14989211042272538, 
            0.6186116231517803, 
            -0.6138590842636474, 
            -0.363400313850636
        ], 
        [
            0.5046488670002486, 
            -0.333447846373236, 
            -0.9013894608440619, 
            -0.6867888842426518, 
            -0.6132484345774248, 
            0.017582122645890357, 
            0.2701857806272469, 
            0.7135036582805925, 
            0.8005343108843711, 
            -0.36683862884833857, 
            0.615829935587261, 
            -0.44487230067906713, 
            -0.27392140717945834, 
            -0.47704490627905605, 
            -0.09673197934116459, 
            -0.5608782387711726, 
            -0.40139679355763724, 
            -0.7667795879005239, 
            0.9306007744122741, 
            0.0077243232978919385
        ], 
        [
            0.8105014481538114, 
            0.5418564759824761, 
            -0.07973578241449601, 
            0.5986963375187808, 
            0.21839549743634115, 
            -0.4001874700837918, 
            0.07824618633372589, 
            0.49293874161580786, 
            -0.3368817484834568, 
            -1.0365927643119934, 
            -0.5286929371822041, 
            0.5255076629118224, 
            0.8619532952445913, 
            0.2743397203021738, 
            -0.763327087781151, 
            0.5012754119048752, 
            0.058270198815493605, 
            0.5258271649057222, 
            0.7007757129972416, 
            0.8040380523694692
        ], 
        [
            0.3238497936748064, 
            0.5573809658306075, 
            0.45391956621826385, 
            0.3165001021183429, 
            0.7587943762844995, 
            0.8227603915435701, 
            0.7708828672405881, 
            -0.21007965011324486, 
            -0.826385521691868, 
            0.7000582362829414, 
            0.005478744702749055, 
            0.18518458362595935, 
            0.644823375494915, 
            -0.9296714693746176, 
            0.7249393610525966, 
            -0.9352308577420225, 
            0.46315988992484514, 
            0.1658879734067491, 
            0.25600132729453634, 
            -0.13651459917323372
        ], 
        [
            -0.47713819915013966, 
            0.05234389716843078, 
            0.7680120113489235, 
            0.2873655679523772, 
            0.2275131320670997, 
            -0.11615600727262712, 
            0.9785285125850107, 
            0.617457366229489, 
            -0.26017518682395313, 
            0.24789820518036668, 
            0.08731859273467833, 
            0.7370761890466062, 
            -0.45242546034654046, 
            -0.8867273382379502, 
            -0.5925335467049759, 
            -0.29750932923075735, 
            0.5527316087204143, 
            -0.4768781794384053, 
            0.34503132408641735, 
            0.1343855551284688
        ], 
        [
            -0.17926471528806734, 
            -0.9124215537951184, 
            0.4811989015744994, 
            -0.3960084641877739, 
            -0.21618048972136913, 
            -0.24537043482699897, 
            0.32711780841586585, 
            -0.8436393936324647, 
            0.09283263642847528, 
            -0.9680734224793786, 
            0.967088065771242, 
            0.18763834794174475, 
            -0.23183714354848547, 
            -0.7099662452800009, 
            0.41923825488232286, 
            0.8124263241290061, 
            -0.36380727541660157, 
            0.5324302153871123, 
            -0.42498092524972914, 
            0.914713396971715
        ], 
        [
            0.3773968187930103, 
            0.30318268098689355, 
            0.8578752996138002, 
            -0.4400489975880985, 
            0.8530598893421879, 
            0.34230805816666526, 
            0.552156530643576, 
            0.12918421638525976, 
            0.6615543790421544, 
            0.3974821530564403, 
            -0.7440853982677282, 
            0.2092818835751203, 
            -0.4526296559573068, 
            0.8725284999554106, 
            -0.585429526321273, 
            -0.4380236917305049, 
            -0.8872040180624321, 
            -0.10840477236321183, 
            0.11479784077814344, 
            0.11851128926195825
        ], 
        [
            0.8121661627444421, 
            -0.30534413291153895, 
            -0.10491641100121546, 
            0.7176690081892637, 
            0.1528836150138561, 
            0.33103493810570556, 
            -0.4480988015836294, 
            -0.027604123577196604, 
            0.2366395951508482, 
            -0.7331289027340381, 
            -0.8904742731212488, 
            -0.7745235878557737, 
            -0.054397168917808804, 
            -0.9840520895911895, 
            0.29092017543694365, 
            -0.8049909929727826, 
            -0.5011570837228713, 
            -0.14731346713372714, 
            -0.7677462530005759, 
            -0.46410764680940236
        ], 
        [
            -0.9641499187848361, 
            0.9778431965212253, 
            0.22130069186676293, 
            -0.22894554652638655, 
            -0.9794661103458993, 
            -0.1574244546663765, 
            -0.13408558140408533, 
            0.7951729348792388, 
            -0.43218875711469695, 
            0.20867504292793498, 
            0.3793151125935728, 
            -0.6478983485801432, 
            -0.0004044383473760417, 
            0.5369138159161249, 
            -0.7662663774377202, 
            0.20665640681403963, 
            -0.9807881914274423, 
            -0.9900219579871248, 
            -0.8822970344634725, 
            -0.04772753550230203
        ], 
        [
            0.6572785953887058, 
            -0.04358342811501403, 
            -0.8272815253943417, 
            0.5703376556176425, 
            0.12995449024486402, 
            -0.5354548987175253, 
            1.0054099610248586, 
            1.0437847293053566, 
            -0.3094838003599913, 
            -0.723812769458625, 
            -0.17414527757822879, 
            0.9791105600227342, 
            -0.36228868570807315, 
            0.32889407431933776, 
            -0.9391216675166277, 
            -0.7036872693910708, 
            0.7318528264525743, 
            -0.6891840730563108, 
            -0.6136550087772383, 
            0.31643577897056413
        ], 
        [
            -0.9699182519798889, 
            -0.9281943326973681, 
            -0.4250872759868338, 
            -0.32671074663614463, 
            -0.2755180163181824, 
            0.6143710916973507, 
            -0.9238779767457984, 
            -0.2726274984673042, 
            0.2770031619883113, 
            -0.7284523882232398, 
            0.6940842142057112, 
            0.29097106046557825, 
            -0.7724049852609706, 
            -0.5756090669493067, 
            0.47995577550666013, 
            -0.20281552744873235, 
            -0.008600028818645885, 
            0.7802684516206458, 
            -0.7251172182462231, 
            0.9071206363771468
        ], 
        [
            -0.9035625189117809, 
            -0.8693150436513855, 
            -0.5750008614857736, 
            0.6049245038699056, 
            -0.10637275710621825, 
            0.38591078014517516, 
            -0.7241173312925163, 
            -0.7439624976424759, 
            0.014732742210442637, 
            0.4842267532839739, 
            -0.05849554452441053, 
            0.7562714738414195, 
            0.31308210417627286, 
            -0.536095081032718, 
            -0.5113827843129248, 
            -0.2646830767329909, 
            0.5276700989922017, 
            0.8624353537563274, 
            0.7115042464883529, 
            -0.4724854961873486
        ], 
        [
            -0.17544214141385875, 
            0.18564243987253903, 
            0.09232630206594186, 
            -0.2762826377020845, 
            -0.7872054919687529, 
            0.41798165828221173, 
            -0.8237431312887494, 
            0.7321123178563621, 
            0.7254559019526787, 
            0.43978436252626607, 
            -0.027254144856285113, 
            0.4252747278697894, 
            -0.22149392851286784, 
            0.5993097252612141, 
            0.5728625821366098, 
            -0.6903750591486898, 
            -0.3373461787977277, 
            -0.3178583910618041, 
            -0.2720680721830177, 
            0.2041382379068754
        ], 
        [
            -0.9206990455696801, 
            0.3336912569111294, 
            -0.600372806536529, 
            -0.1470029141400523, 
            -0.1296191880522141, 
            -0.33635554639781723, 
            -0.20615720180999195, 
            -0.6383701996359545, 
            -0.817732334002965, 
            0.09955515629004719, 
            0.1357984238276123, 
            -0.7387820903617731, 
            -0.5367668414704091, 
            -0.4079741113374344, 
            0.6296506284456064, 
            -0.7117929452831407, 
            0.1196253117933918, 
            0.1325555992155555, 
            -0.3179958503706126, 
            -0.3179548592265288
        ], 
        [
            0.9018232019935262, 
            0.1942077512669248, 
            0.31097090029651714, 
            -0.0003954965130011615, 
            0.2837686217370847, 
            0.1630324501697921, 
            -0.6788230886211791, 
            -0.28516567269505305, 
            -0.006865226750921541, 
            -0.7530684934909839, 
            -0.36404314143134175, 
            -0.5735263808251501, 
            0.703291780833791, 
            -0.28789016183393595, 
            -0.5922989555282774, 
            -0.21829493629418326, 
            0.37176219946240785, 
            -0.8640759634095673, 
            -0.6502350907225812, 
            0.3364315829404462
        ], 
        [
            0.46375749567649915, 
            0.547997739536297, 
            0.7300340471316498, 
            -0.531849057170165, 
            0.26455813369969444, 
            0.7014804448941553, 
            -0.6039042614152121, 
            -0.40812745760220065, 
            0.22126213621076532, 
            -0.3713677022539286, 
            0.13502323107454725, 
            -0.9789567545802871, 
            -0.6944840756146241, 
            0.5025707303368087, 
            0.8925994264254967, 
            0.7591778818375947, 
            0.7436689896332198, 
            -0.7307917347641167, 
            -0.6682905345778531, 
            -0.9648472826010563
        ], 
        [
            0.08681657226182664, 
            0.7518891748523467, 
            0.06214341465891986, 
            0.5631915936329853, 
            -0.6230919771253179, 
            0.7262790077004956, 
            -0.6471553960198927, 
            -0.8996651357919662, 
            -0.16173243890898162, 
            0.11024165192257236, 
            0.9374640334746364, 
            -0.8151729539032038, 
            -0.4534015067872075, 
            -0.7914279258239366, 
            -0.22157740390516814, 
            -0.4256078464778339, 
            0.04683549154563677, 
            -0.30348663864813236, 
            0.856455761896088, 
            0.5805744916953877
        ], 
        [
            0.7224088091181501, 
            -0.7461063690304828, 
            0.13427235109238328, 
            -0.5650202476670443, 
            0.7362342400233618, 
            -0.9685772223269229, 
            -0.7885117952606476, 
            -0.2633204197939073, 
            -0.20346746266635093, 
            -0.4455599123944, 
            -0.8073314023737711, 
            -0.7651466038941364, 
            -0.3640269482761562, 
            0.8989354859725813, 
            -0.5841727203110295, 
            0.49016348600063947, 
            -0.4836370258561849, 
            -0.9433266223914754, 
            -0.9677579343595097, 
            -0.6946308085058841
        ], 
        [
            -0.2276338715942452, 
            0.9803360045912631, 
            0.5351503991362973, 
            -0.050840708772732314, 
            -0.13654541061934905, 
            0.4850949627566514, 
            0.8653579126244867, 
            -0.13286271593176413, 
            -0.801763907554058, 
            -1.0217363126373427, 
            0.20813087840209368, 
            -0.6158810641738527, 
            -0.044882185684547334, 
            -0.5347838210305873, 
            0.34684648953025327, 
            -0.1369276260437224, 
            0.08657547739382547, 
            -0.37704439135769824, 
            -0.04851881480466181, 
            -1.179331736900689
        ], 
        [
            -0.44818539681595865, 
            -0.2974347143987849, 
            -0.42175021957715864, 
            -0.8070239816654247, 
            0.04023621227782102, 
            0.5683528019205452, 
            0.905219606465753, 
            0.010427312780503547, 
            0.18961312442388886, 
            -0.42906301117468804, 
            -0.7298051477215395, 
            -0.7627903525920133, 
            0.46132251767253846, 
            0.4840680002655545, 
            -0.6743536455193226, 
            -0.183914689283574, 
            0.1861369728226632, 
            -0.7474481667933427, 
            0.5776860580919597, 
            0.23606425992495184
        ], 
        [
            0.2732876317710734, 
            0.306669835748468, 
            0.9623843991556837, 
            0.04017727174440522, 
            0.7656495574486464, 
            -0.15409093772726168, 
            0.28744259041852877, 
            0.8050874351649849, 
            0.3116931691495868, 
            -0.3906316477862257, 
            0.22417258024836104, 
            -0.2965014288605229, 
            -0.35847849486218486, 
            0.22085704492560057, 
            -0.666292859001632, 
            -0.029009486968765732, 
            0.8949936621525544, 
            -0.24545907351369106, 
            -0.6220946359766159, 
            0.005884209413057473
        ], 
        [
            0.7742979237757066, 
            0.6074215920062277, 
            0.6663865063746093, 
            -1.083315123458217, 
            -0.300370276477131, 
            0.9753569225936063, 
            -0.7719793952511506, 
            -0.06675776182664658, 
            0.5184016349985258, 
            -0.6634580188318302, 
            0.3624631575226399, 
            0.17074421285942643, 
            -0.6021082851214499, 
            0.761213300435952, 
            -0.5373965156973799, 
            0.2619588358802306, 
            0.6253079340599498, 
            0.0903922729851373, 
            0.21901524454799912, 
            -0.540452444234764
        ], 
        [
            -0.3564476011671697, 
            0.13473191865631715, 
            -0.22070381030375874, 
            0.32876730076799704, 
            0.6656646595840259, 
            -0.563723571093151, 
            0.7860088749208921, 
            -0.29907396447500456, 
            0.8507989883405309, 
            0.279367480931611, 
            0.6600009763155494, 
            0.03001555911170228, 
            0.03460035725789525, 
            -0.37924401718034717, 
            -0.6214658919247846, 
            -0.217100616345484, 
            -0.5754924470834148, 
            -0.9639227173120226, 
            -0.4328837089708822, 
            -0.6310616520666754
        ], 
        [
            0.7172361537288695, 
            -0.7329470789645901, 
            -0.6333699278318384, 
            0.4133408825873265, 
            0.8251843932115553, 
            -0.5566527297251332, 
            -0.9154056593307736, 
            0.9697815723047487, 
            0.3999176819715284, 
            -0.4088768389542194, 
            -0.08963588838307382, 
            0.17337172967472916, 
            -0.2409983463010854, 
            0.7896936802930957, 
            0.3693430104537642, 
            0.8725696501580682, 
            -0.2974424028203532, 
            0.8875418748863403, 
            -0.0646548615122356, 
            0.24598260491970472
        ], 
        [
            0.3994875323769521, 
            0.7006991480179136, 
            -0.1214204648768086, 
            0.07122373241657867, 
            0.6242505588955586, 
            0.3546244549083129, 
            0.928672567273049, 
            1.0653131987731288, 
            -0.5454691402962806, 
            -0.6018131505386506, 
            0.3183900735277402, 
            0.41267331065733753, 
            0.18290137447694985, 
            0.817718235991076, 
            -0.6038576323114279, 
            -0.32268268034343706, 
            -0.012745589589348618, 
            -0.37581037941133655, 
            0.1093519211932847, 
            0.3509614943223969
        ], 
        [
            -0.8231317740998563, 
            0.2698276438069884, 
            1.0873345897989795, 
            -0.07982870844198184, 
            -0.945481949973109, 
            0.4105901274519446, 
            0.21975319499426535, 
            -0.4821035725491887, 
            1.1325649703402623, 
            -0.4286666850923224, 
            0.47952438093945776, 
            -0.2729691322404364, 
            -0.862426046881685, 
            -0.22263755869516866, 
            -0.6070052794253512, 
            0.2740164138776138, 
            -0.6269394594192529, 
            -0.06474972033106265, 
            0.5671841357375306, 
            -0.26182016822186094
        ], 
        [
            -0.796466038004265, 
            -0.9459157073663901, 
            0.4219676101668667, 
            0.9793265450961738, 
            0.5670043197143155, 
            0.5208469288643499, 
            0.37091776660545334, 
            0.6068531491445088, 
            -0.9178590209417073, 
            -0.48141962336192123, 
            0.36267090638118904, 
            0.7074429251665922, 
            0.34581470956707144, 
            -0.6323186144674563, 
            0.8395632410987932, 
            0.7957219513865416, 
            -0.8287941506802072, 
            -0.6120119840171342, 
            -0.4426657804247155, 
            0.47290359449368835
        ], 
        [
            0.5734010866974073, 
            0.28099418394777864, 
            -0.5589829718387976, 
            -0.05821996048519089, 
            -0.7130045309577562, 
            0.8688068235104813, 
            0.5823265249453738, 
            0.1467273754878226, 
            -0.1279483168974318, 
            -0.9005818117649367, 
            -0.5706591874834973, 
            -0.8851948182878207, 
            0.5493820288935388, 
            -0.026428164772236053, 
            -0.685093311698214, 
            -0.6181601670798645, 
            -0.5513189270784841, 
            -0.3812132571417872, 
            -0.2158565928494766, 
            -0.5574983748629548
        ], 
        [
            0.2821189142837372, 
            -0.8771560225139156, 
            -0.3281060938912454, 
            0.5988198206009916, 
            0.9096933802427296, 
            0.5746159495041792, 
            -0.4634867930188236, 
            -0.5656355252267834, 
            -0.6352762787971125, 
            0.7445506524609228, 
            -0.391160969766562, 
            0.5221809140566519, 
            -0.47353187817586545, 
            -0.8414928361071252, 
            0.35808057886170636, 
            0.41668623977201563, 
            -0.8599412361694432, 
            -0.3738933813770642, 
            0.8098699680658596, 
            -0.7480354178927341
        ], 
